<?xml version="1.0"?>
<opencv_storage>
<kekoukele type_id="opencv-haar-classifier">
  <size>
    40 70</size>
  <stages>
    <_>
      <!-- stage 0 -->
      <trees>
        <_>
          <!-- tree 0 -->
          <_>
            <!-- root node -->
            <feature>
              <rects>
                <_>
                  0 0 4 49 -1.</_>
                <_>
                  2 0 2 49 2.</_></rects>
              <tilted>0</tilted></feature>
            <threshold>-4.1435848921537399e-002</threshold>
            <left_val>1.</left_val>
            <right_val>-9.9999457597732544e-001</right_val></_></_></trees>
      <stage_threshold>1.</stage_threshold>
      <parent>-1</parent>
      <next>-1</next></_>
    <_>
      <!-- stage 1 -->
      <trees>
        <_>
          <!-- tree 0 -->
          <_>
            <!-- root node -->
            <feature>
              <rects>
                <_>
                  5 61 18 6 -1.</_>
                <_>
                  5 61 9 3 2.</_>
                <_>
                  14 64 9 3 2.</_></rects>
              <tilted>0</tilted></feature>
            <threshold>-8.4574995562434196e-003</threshold>
            <left_val>9.3786370754241943e-001</left_val>
            <right_val>-9.9999439716339111e-001</right_val></_></_></trees>
      <stage_threshold>9.3786370754241943e-001</stage_threshold>
      <parent>0</parent>
      <next>-1</next></_></stages></kekoukele>
</opencv_storage>
