<?xml version="1.0"?>
<opencv_storage>
<xuebi type_id="opencv-haar-classifier">
  <size>
    40 70</size>
  <stages>
    <_>
      <!-- stage 0 -->
      <trees>
        <_>
          <!-- tree 0 -->
          <_>
            <!-- root node -->
            <feature>
              <rects>
                <_>
                  6 27 24 6 -1.</_>
                <_>
                  14 27 8 6 3.</_></rects>
              <tilted>0</tilted></feature>
            <threshold>-4.2653720825910568e-002</threshold>
            <left_val>9.9282258749008179e-001</left_val>
            <right_val>-9.9993771314620972e-001</right_val></_></_></trees>
      <stage_threshold>9.9282258749008179e-001</stage_threshold>
      <parent>-1</parent>
      <next>-1</next></_>
    <_>
      <!-- stage 1 -->
      <trees>
        <_>
          <!-- tree 0 -->
          <_>
            <!-- root node -->
            <feature>
              <rects>
                <_>
                  5 3 30 24 -1.</_>
                <_>
                  5 15 30 12 2.</_></rects>
              <tilted>0</tilted></feature>
            <threshold>1.6748070716857910e-001</threshold>
            <left_val>-1.</left_val>
            <right_val>9.9282658100128174e-001</right_val></_></_></trees>
      <stage_threshold>9.9282658100128174e-001</stage_threshold>
      <parent>0</parent>
      <next>-1</next></_></stages></xuebi>
</opencv_storage>
